digraph Tree {
node [shape=box, style="filled", color="black", fontname="helvetica"] ;
edge [fontname="helvetica"] ;
0 [label="ap_hi <= 129.5\ngini = 0.5\nsamples = 52500\nvalue = [26295, 26205]\nclass = 0", fillcolor="#fffffe"] ;
1 [label="age <= 19973.5\ngini = 0.434\nsamples = 31060\nvalue = [21175, 9885]\nclass = 0", fillcolor="#f1bc95"] ;
0 -> 1 [labeldistance=2.5, labelangle=45, headlabel="True"] ;
2 [label="cholesterol <= 2.5\ngini = 0.364\nsamples = 19220\nvalue = [14629.0, 4591.0]\nclass = 0", fillcolor="#eda977"] ;
1 -> 2 ;
3 [label="age <= 16099.5\ngini = 0.348\nsamples = 18411\nvalue = [14289, 4122]\nclass = 0", fillcolor="#eda572"] ;
2 -> 3 ;
4 [label="cholesterol <= 1.5\ngini = 0.246\nsamples = 5040\nvalue = [4317, 723]\nclass = 0", fillcolor="#e9965a"] ;
3 -> 4 ;
5 [label="gini = 0.22\nsamples = 4536\nvalue = [3965, 571]\nclass = 0", fillcolor="#e99356"] ;
4 -> 5 ;
6 [label="gini = 0.421\nsamples = 504\nvalue = [352, 152]\nclass = 0", fillcolor="#f0b78e"] ;
4 -> 6 ;
7 [label="ap_hi <= 119.5\ngini = 0.379\nsamples = 13371\nvalue = [9972, 3399]\nclass = 0", fillcolor="#eeac7c"] ;
3 -> 7 ;
8 [label="gini = 0.316\nsamples = 4470\nvalue = [3590, 880]\nclass = 0", fillcolor="#eba06a"] ;
7 -> 8 ;
9 [label="gini = 0.406\nsamples = 8901\nvalue = [6382, 2519]\nclass = 0", fillcolor="#efb387"] ;
7 -> 9 ;
10 [label="gluc <= 2.5\ngini = 0.487\nsamples = 809\nvalue = [340, 469]\nclass = 1", fillcolor="#c9e4f8"] ;
2 -> 10 ;
11 [label="age <= 15225.5\ngini = 0.373\nsamples = 347\nvalue = [86, 261]\nclass = 1", fillcolor="#7abdee"] ;
10 -> 11 ;
12 [label="gini = 0.496\nsamples = 22\nvalue = [12, 10]\nclass = 0", fillcolor="#fbeade"] ;
11 -> 12 ;
13 [label="gini = 0.352\nsamples = 325\nvalue = [74.0, 251.0]\nclass = 1", fillcolor="#73baed"] ;
11 -> 13 ;
14 [label="ap_lo <= 77.0\ngini = 0.495\nsamples = 462\nvalue = [254.0, 208.0]\nclass = 0", fillcolor="#fae8db"] ;
10 -> 14 ;
15 [label="gini = 0.398\nsamples = 95\nvalue = [69, 26]\nclass = 0", fillcolor="#efb084"] ;
14 -> 15 ;
16 [label="gini = 0.5\nsamples = 367\nvalue = [185, 182]\nclass = 0", fillcolor="#fffdfc"] ;
14 -> 16 ;
17 [label="cholesterol <= 2.5\ngini = 0.494\nsamples = 11840\nvalue = [6546, 5294]\nclass = 0", fillcolor="#fae7d9"] ;
1 -> 17 ;
18 [label="age <= 22172.5\ngini = 0.487\nsamples = 10614\nvalue = [6172, 4442]\nclass = 0", fillcolor="#f8dcc8"] ;
17 -> 18 ;
19 [label="ap_hi <= 119.0\ngini = 0.469\nsamples = 7789\nvalue = [4866, 2923]\nclass = 0", fillcolor="#f5cdb0"] ;
18 -> 19 ;
20 [label="gini = 0.42\nsamples = 1969\nvalue = [1378, 591]\nclass = 0", fillcolor="#f0b78e"] ;
19 -> 20 ;
21 [label="gini = 0.48\nsamples = 5820\nvalue = [3488, 2332]\nclass = 0", fillcolor="#f6d5bd"] ;
19 -> 21 ;
22 [label="active <= 0.5\ngini = 0.497\nsamples = 2825\nvalue = [1306.0, 1519.0]\nclass = 1", fillcolor="#e3f1fb"] ;
18 -> 22 ;
23 [label="gini = 0.465\nsamples = 624\nvalue = [230, 394]\nclass = 1", fillcolor="#add6f4"] ;
22 -> 23 ;
24 [label="gini = 0.5\nsamples = 2201\nvalue = [1076, 1125]\nclass = 1", fillcolor="#f6fbfe"] ;
22 -> 24 ;
25 [label="weight <= 72.5\ngini = 0.424\nsamples = 1226\nvalue = [374, 852]\nclass = 1", fillcolor="#90c8f0"] ;
17 -> 25 ;
26 [label="age <= 21687.5\ngini = 0.472\nsamples = 602\nvalue = [230.0, 372.0]\nclass = 1", fillcolor="#b3daf5"] ;
25 -> 26 ;
27 [label="gini = 0.5\nsamples = 291\nvalue = [142, 149]\nclass = 1", fillcolor="#f6fafe"] ;
26 -> 27 ;
28 [label="gini = 0.406\nsamples = 311\nvalue = [88.0, 223.0]\nclass = 1", fillcolor="#87c4ef"] ;
26 -> 28 ;
29 [label="age <= 23424.0\ngini = 0.355\nsamples = 624\nvalue = [144, 480]\nclass = 1", fillcolor="#74baed"] ;
25 -> 29 ;
30 [label="gini = 0.343\nsamples = 605\nvalue = [133, 472]\nclass = 1", fillcolor="#71b9ec"] ;
29 -> 30 ;
31 [label="gini = 0.488\nsamples = 19\nvalue = [11, 8]\nclass = 0", fillcolor="#f8ddc9"] ;
29 -> 31 ;
32 [label="ap_hi <= 138.5\ngini = 0.364\nsamples = 21440\nvalue = [5120, 16320]\nclass = 1", fillcolor="#77bced"] ;
0 -> 32 [labeldistance=2.5, labelangle=-45, headlabel="False"] ;
33 [label="cholesterol <= 2.5\ngini = 0.48\nsamples = 6949\nvalue = [2779, 4170]\nclass = 1", fillcolor="#bddef6"] ;
32 -> 33 ;
34 [label="age <= 22038.0\ngini = 0.494\nsamples = 5669\nvalue = [2537.0, 3132.0]\nclass = 1", fillcolor="#d9ecfa"] ;
33 -> 34 ;
35 [label="ap_lo <= 89.5\ngini = 0.499\nsamples = 4603\nvalue = [2176, 2427]\nclass = 1", fillcolor="#ebf5fc"] ;
34 -> 35 ;
36 [label="gini = 0.499\nsamples = 2763\nvalue = [1436, 1327]\nclass = 0", fillcolor="#fdf5f0"] ;
35 -> 36 ;
37 [label="gini = 0.481\nsamples = 1840\nvalue = [740, 1100]\nclass = 1", fillcolor="#bedff6"] ;
35 -> 37 ;
38 [label="age <= 23653.0\ngini = 0.448\nsamples = 1066\nvalue = [361, 705]\nclass = 1", fillcolor="#9ecff2"] ;
34 -> 38 ;
39 [label="gini = 0.447\nsamples = 1063\nvalue = [358, 705]\nclass = 1", fillcolor="#9ecff2"] ;
38 -> 39 ;
40 [label="gini = 0.0\nsamples = 3\nvalue = [3, 0]\nclass = 0", fillcolor="#e58139"] ;
38 -> 40 ;
41 [label="gluc <= 2.5\ngini = 0.307\nsamples = 1280\nvalue = [242, 1038]\nclass = 1", fillcolor="#67b4eb"] ;
33 -> 41 ;
42 [label="weight <= 48.5\ngini = 0.266\nsamples = 773\nvalue = [122, 651]\nclass = 1", fillcolor="#5eafea"] ;
41 -> 42 ;
43 [label="gini = 0.0\nsamples = 1\nvalue = [1, 0]\nclass = 0", fillcolor="#e58139"] ;
42 -> 43 ;
44 [label="gini = 0.264\nsamples = 772\nvalue = [121, 651]\nclass = 1", fillcolor="#5eafea"] ;
42 -> 44 ;
45 [label="height <= 157.5\ngini = 0.361\nsamples = 507\nvalue = [120, 387]\nclass = 1", fillcolor="#76bbed"] ;
41 -> 45 ;
46 [label="gini = 0.216\nsamples = 122\nvalue = [15, 107]\nclass = 1", fillcolor="#55abe9"] ;
45 -> 46 ;
47 [label="gini = 0.397\nsamples = 385\nvalue = [105.0, 280.0]\nclass = 1", fillcolor="#83c2ef"] ;
45 -> 47 ;
48 [label="ap_hi <= 149.5\ngini = 0.271\nsamples = 14491\nvalue = [2341, 12150]\nclass = 1", fillcolor="#5fb0ea"] ;
32 -> 48 ;
49 [label="gluc <= 2.5\ngini = 0.302\nsamples = 7309\nvalue = [1353, 5956]\nclass = 1", fillcolor="#66b3eb"] ;
48 -> 49 ;
50 [label="cholesterol <= 1.5\ngini = 0.292\nsamples = 6541\nvalue = [1161, 5380]\nclass = 1", fillcolor="#64b2eb"] ;
49 -> 50 ;
51 [label="gini = 0.309\nsamples = 4380\nvalue = [837, 3543]\nclass = 1", fillcolor="#68b4eb"] ;
50 -> 51 ;
52 [label="gini = 0.255\nsamples = 2161\nvalue = [324, 1837]\nclass = 1", fillcolor="#5caeea"] ;
50 -> 52 ;
53 [label="age <= 23393.5\ngini = 0.375\nsamples = 768\nvalue = [192, 576]\nclass = 1", fillcolor="#7bbeee"] ;
49 -> 53 ;
54 [label="gini = 0.383\nsamples = 743\nvalue = [192, 551]\nclass = 1", fillcolor="#7ebfee"] ;
53 -> 54 ;
55 [label="gini = 0.0\nsamples = 25\nvalue = [0, 25]\nclass = 1", fillcolor="#399de5"] ;
53 -> 55 ;
56 [label="ap_lo <= 63.5\ngini = 0.237\nsamples = 7182\nvalue = [988, 6194]\nclass = 1", fillcolor="#59ade9"] ;
48 -> 56 ;
57 [label="age <= 15689.0\ngini = 0.444\nsamples = 57\nvalue = [19, 38]\nclass = 1", fillcolor="#9ccef2"] ;
56 -> 57 ;
58 [label="gini = 0.0\nsamples = 5\nvalue = [5, 0]\nclass = 0", fillcolor="#e58139"] ;
57 -> 58 ;
59 [label="gini = 0.393\nsamples = 52\nvalue = [14, 38]\nclass = 1", fillcolor="#82c1ef"] ;
57 -> 59 ;
60 [label="weight <= 52.5\ngini = 0.235\nsamples = 7125\nvalue = [969.0, 6156.0]\nclass = 1", fillcolor="#58ace9"] ;
56 -> 60 ;
61 [label="gini = 0.375\nsamples = 120\nvalue = [30, 90]\nclass = 1", fillcolor="#7bbeee"] ;
60 -> 61 ;
62 [label="gini = 0.232\nsamples = 7005\nvalue = [939.0, 6066.0]\nclass = 1", fillcolor="#58ace9"] ;
60 -> 62 ;
}